<?xml version="1.0"?>
<opencv_storage>
<cascade>
  <stageType>BOOST</stageType>
  <featureType>HAAR</featureType>
  <height>24</height>
  <width>24</width>
  <stageParams>
    <boostType>GAB</boostType>
    <minHitRate>9.9900001287460327e-01</minHitRate>
    <maxFalseAlarm>4.0000000596046448e-01</maxFalseAlarm>
    <weightTrimRate>9.4999999999999996e-01</weightTrimRate>
    <maxDepth>1</maxDepth>
    <maxWeakCount>100</maxWeakCount></stageParams>
  <featureParams>
    <maxCatCount>0</maxCatCount>
    <featSize>1</featSize>
    <mode>BASIC</mode></featureParams>
  <stageNum>15</stageNum>
  <stages>
    <!-- stage 0 -->
    <_>
      <maxWeakCount>5</maxWeakCount>
      <stageThreshold>-1.4584356546401978e+00</stageThreshold>
      <weakClassifiers>
        <_>
          <internalNodes>
            0 -1 10 -8.2615256309509277e-02</internalNodes>
          <leafValues>
            9.3181818723678589e-01 -9.0384614467620850e-01</leafValues></_>
        <_>
          <internalNodes>
            0 -1 24 -2.6911878958344460e-02</internalNodes>
          <leafValues>
            3.9451253414154053e-01 -8.4969264268875122e-01</leafValues></_>
        <_>
          <internalNodes>
            0 -1 95 4.2236220906488597e-05</internalNodes>
          <leafValues>
            3.1781104207038879e-01 -7.9738205671310425e-01</leafValues></_>
        <_>
          <internalNodes>
            0 -1 0 -2.2788975387811661e-02</internalNodes>
          <leafValues>
            5.8916366100311279e-01 -5.4722660779953003e-01</leafValues></_>
        <_>
          <internalNodes>
            0 -1 8 4.3383497541071847e-05</internalNodes>
          <leafValues>
            5.4191893339157104e-01 -7.1968638896942139e-01</leafValues></_></weakClassifiers></_>
    <!-- stage 1 -->
    <_>
      <maxWeakCount>5</maxWeakCount>
      <stageThreshold>-1.7551215887069702e+00</stageThreshold>
      <weakClassifiers>
        <_>
          <internalNodes>
            0 -1 6 -5.1329903304576874e-02</internalNodes>
          <leafValues>
            7.1794873476028442e-01 -7.9503107070922852e-01</leafValues></_>
        <_>
          <internalNodes>
            0 -1 104 8.1683844327926636e-03</internalNodes>
          <leafValues>
            -4.6786564588546753e-01 7.7232372760772705e-01</leafValues></_>
        <_>
          <internalNodes>
            0 -1 18 3.1402716558659449e-05</internalNodes>
          <leafValues>
            4.3156209588050842e-01 -6.5744572877883911e-01</leafValues></_>
        <_>
          <internalNodes>
            0 -1 51 -1.8151772674173117e-03</internalNodes>
          <leafValues>
            7.1762752532958984e-01 -4.1266700625419617e-01</leafValues></_>
        <_>
          <internalNodes>
            0 -1 53 -2.2587957978248596e-01</internalNodes>
          <leafValues>
            4.7351264953613281e-01 -6.6230159997940063e-01</leafValues></_></weakClassifiers></_>
    <!-- stage 2 -->
    <_>
      <maxWeakCount>6</maxWeakCount>
      <stageThreshold>-6.7996811866760254e-01</stageThreshold>
      <weakClassifiers>
        <_>
          <internalNodes>
            0 -1 14 -1.5187799930572510e-02</internalNodes>
          <leafValues>
            8.1395345926284790e-01 -6.5826332569122314e-01</leafValues></_>
        <_>
          <internalNodes>
            0 -1 106 1.1992100626230240e-03</internalNodes>
          <leafValues>
            -6.0669392347335815e-01 4.6266439557075500e-01</leafValues></_>
        <_>
          <internalNodes>
            0 -1 57 -8.3766505122184753e-04</internalNodes>
          <leafValues>
            -5.7196408510208130e-01 4.9852296710014343e-01</leafValues></_>
        <_>
          <internalNodes>
            0 -1 55 1.4021794311702251e-02</internalNodes>
          <leafValues>
            -3.3773851394653320e-01 6.9501018524169922e-01</leafValues></_>
        <_>
          <internalNodes>
            0 -1 43 -2.7310848236083984e-03</internalNodes>
          <leafValues>
            7.3992341756820679e-01 -2.9412019252777100e-01</leafValues></_>
        <_>
          <internalNodes>
            0 -1 73 7.5540328398346901e-03</internalNodes>
          <leafValues>
            -2.6931792497634888e-01 7.5606310367584229e-01</leafValues></_></weakClassifiers></_>
    <!-- stage 3 -->
    <_>
      <maxWeakCount>4</maxWeakCount>
      <stageThreshold>-6.2877291440963745e-01</stageThreshold>
      <weakClassifiers>
        <_>
          <internalNodes>
            0 -1 33 8.9692547917366028e-03</internalNodes>
          <leafValues>
            -6.4804470539093018e-01 7.6190477609634399e-01</leafValues></_>
        <_>
          <internalNodes>
            0 -1 79 -1.1017527431249619e-01</internalNodes>
          <leafValues>
            -9.2329424619674683e-01 3.1888696551322937e-01</leafValues></_>
        <_>
          <internalNodes>
            0 -1 39 -1.7312649637460709e-02</internalNodes>
          <leafValues>
            6.7999327182769775e-01 -3.9505860209465027e-01</leafValues></_>
        <_>
          <internalNodes>
            0 -1 29 1.1754294484853745e-01</internalNodes>
          <leafValues>
            2.6257273554801941e-01 -8.9266127347946167e-01</leafValues></_></weakClassifiers></_>
    <!-- stage 4 -->
    <_>
      <maxWeakCount>8</maxWeakCount>
      <stageThreshold>-8.3104497194290161e-01</stageThreshold>
      <weakClassifiers>
        <_>
          <internalNodes>
            0 -1 16 -8.9301228523254395e-02</internalNodes>
          <leafValues>
            -9.6774190664291382e-01 -9.3457944691181183e-02</leafValues></_>
        <_>
          <internalNodes>
            0 -1 104 8.0770431086421013e-03</internalNodes>
          <leafValues>
            -4.9337339401245117e-01 5.0688749551773071e-01</leafValues></_>
        <_>
          <internalNodes>
            0 -1 110 -8.8468998670578003e-02</internalNodes>
          <leafValues>
            -1. 1.9196946918964386e-01</leafValues></_>
        <_>
          <internalNodes>
            0 -1 63 -6.7074969410896301e-03</internalNodes>
          <leafValues>
            6.5003216266632080e-01 -3.2686936855316162e-01</leafValues></_>
        <_>
          <internalNodes>
            0 -1 98 -2.4042408913373947e-03</internalNodes>
          <leafValues>
            7.7077418565750122e-01 -2.1618306636810303e-01</leafValues></_>
        <_>
          <internalNodes>
            0 -1 23 9.6765523776412010e-03</internalNodes>
          <leafValues>
            -3.0141264200210571e-01 5.5917090177536011e-01</leafValues></_>
        <_>
          <internalNodes>
            0 -1 38 7.7435830608010292e-03</internalNodes>
          <leafValues>
            -2.3394511640071869e-01 7.1053123474121094e-01</leafValues></_>
        <_>
          <internalNodes>
            0 -1 28 -5.2494215779006481e-03</internalNodes>
          <leafValues>
            7.0972567796707153e-01 -2.1835643053054810e-01</leafValues></_></weakClassifiers></_>
    <!-- stage 5 -->
    <_>
      <maxWeakCount>8</maxWeakCount>
      <stageThreshold>-1.1700687408447266e+00</stageThreshold>
      <weakClassifiers>
        <_>
          <internalNodes>
            0 -1 3 -1.1711906641721725e-02</internalNodes>
          <leafValues>
            2.1126760542392731e-01 -6.5349543094635010e-01</leafValues></_>
        <_>
          <internalNodes>
            0 -1 44 -7.3766321293078363e-05</internalNodes>
          <leafValues>
            -6.1966490745544434e-01 2.2270594537258148e-01</leafValues></_>
        <_>
          <internalNodes>
            0 -1 69 1.6514683375135064e-04</internalNodes>
          <leafValues>
            1.9381918013095856e-01 -8.3470070362091064e-01</leafValues></_>
        <_>
          <internalNodes>
            0 -1 70 1.6408164810854942e-04</internalNodes>
          <leafValues>
            2.3368760943412781e-01 -6.0415822267532349e-01</leafValues></_>
        <_>
          <internalNodes>
            0 -1 40 2.4131528334692121e-04</internalNodes>
          <leafValues>
            1.6464886069297791e-01 -7.6060479879379272e-01</leafValues></_>
        <_>
          <internalNodes>
            0 -1 19 2.3780295159667730e-03</internalNodes>
          <leafValues>
            -3.9572548866271973e-01 3.7365600466728210e-01</leafValues></_>
        <_>
          <internalNodes>
            0 -1 88 -4.3629975989460945e-03</internalNodes>
          <leafValues>
            6.1993110179901123e-01 -2.9719927906990051e-01</leafValues></_>
        <_>
          <internalNodes>
            0 -1 13 -6.1195413582026958e-04</internalNodes>
          <leafValues>
            -6.3851004838943481e-01 2.8402170538902283e-01</leafValues></_></weakClassifiers></_>
    <!-- stage 6 -->
    <_>
      <maxWeakCount>9</maxWeakCount>
      <stageThreshold>-9.1141134500503540e-01</stageThreshold>
      <weakClassifiers>
        <_>
          <internalNodes>
            0 -1 46 1.2636873871088028e-02</internalNodes>
          <leafValues>
            -6.3532763719558716e-01 4.6938776969909668e-01</leafValues></_>
        <_>
          <internalNodes>
            0 -1 108 1.6718320548534393e-03</internalNodes>
          <leafValues>
            -2.7714765071868896e-01 7.1132582426071167e-01</leafValues></_>
        <_>
          <internalNodes>
            0 -1 2 -9.6872929134406149e-05</internalNodes>
          <leafValues>
            -5.5574160814285278e-01 2.5792112946510315e-01</leafValues></_>
        <_>
          <internalNodes>
            0 -1 45 -6.4833713695406914e-03</internalNodes>
          <leafValues>
            7.7393144369125366e-01 -1.9279123842716217e-01</leafValues></_>
        <_>
          <internalNodes>
            0 -1 1 -1.8337214132770896e-03</internalNodes>
          <leafValues>
            3.8087245821952820e-01 -3.8284662365913391e-01</leafValues></_>
        <_>
          <internalNodes>
            0 -1 27 -1.9897529273293912e-04</internalNodes>
          <leafValues>
            -5.0893723964691162e-01 3.1891369819641113e-01</leafValues></_>
        <_>
          <internalNodes>
            0 -1 35 -4.3728789314627647e-03</internalNodes>
          <leafValues>
            4.4475317001342773e-01 -3.6182335019111633e-01</leafValues></_>
        <_>
          <internalNodes>
            0 -1 11 1.4020999893546104e-02</internalNodes>
          <leafValues>
            -1.9129528105258942e-01 7.3586171865463257e-01</leafValues></_>
        <_>
          <internalNodes>
            0 -1 101 6.9505171850323677e-03</internalNodes>
          <leafValues>
            -1.8945905566215515e-01 7.6564919948577881e-01</leafValues></_></weakClassifiers></_>
    <!-- stage 7 -->
    <_>
      <maxWeakCount>9</maxWeakCount>
      <stageThreshold>-8.7434041500091553e-01</stageThreshold>
      <weakClassifiers>
        <_>
          <internalNodes>
            0 -1 9 -1.9071366637945175e-02</internalNodes>
          <leafValues>
            1.5555556118488312e-01 -6.9032257795333862e-01</leafValues></_>
        <_>
          <internalNodes>
            0 -1 50 -3.2640915364027023e-02</internalNodes>
          <leafValues>
            2.5417423248291016e-01 -4.7772818803787231e-01</leafValues></_>
        <_>
          <internalNodes>
            0 -1 93 -8.0925261136144400e-04</internalNodes>
          <leafValues>
            3.8719698786735535e-01 -3.1598621606826782e-01</leafValues></_>
        <_>
          <internalNodes>
            0 -1 84 5.3373246919363737e-04</internalNodes>
          <leafValues>
            2.1389441192150116e-01 -6.2172663211822510e-01</leafValues></_>
        <_>
          <internalNodes>
            0 -1 100 -4.9141868948936462e-03</internalNodes>
          <leafValues>
            8.5864961147308350e-01 -1.3451118767261505e-01</leafValues></_>
        <_>
          <internalNodes>
            0 -1 97 9.2748841270804405e-03</internalNodes>
          <leafValues>
            -3.9153799414634705e-01 3.5340058803558350e-01</leafValues></_>
        <_>
          <internalNodes>
            0 -1 81 -1.3033185154199600e-02</internalNodes>
          <leafValues>
            5.9269011020660400e-01 -2.2766089439392090e-01</leafValues></_>
        <_>
          <internalNodes>
            0 -1 76 3.2227463088929653e-04</internalNodes>
          <leafValues>
            1.7295074462890625e-01 -8.4708398580551147e-01</leafValues></_>
        <_>
          <internalNodes>
            0 -1 102 -2.0484018605202436e-03</internalNodes>
          <leafValues>
            4.7673967480659485e-01 -3.0059581995010376e-01</leafValues></_></weakClassifiers></_>
    <!-- stage 8 -->
    <_>
      <maxWeakCount>7</maxWeakCount>
      <stageThreshold>-1.0903942584991455e+00</stageThreshold>
      <weakClassifiers>
        <_>
          <internalNodes>
            0 -1 65 7.1398615837097168e-03</internalNodes>
          <leafValues>
            -6.4086687564849854e-01 9.0909093618392944e-02</leafValues></_>
        <_>
          <internalNodes>
            0 -1 92 -1.4145139721222222e-04</internalNodes>
          <leafValues>
            -6.7597037553787231e-01 1.6426554322242737e-01</leafValues></_>
        <_>
          <internalNodes>
            0 -1 22 2.8178142383694649e-04</internalNodes>
          <leafValues>
            1.4030916988849640e-01 -8.2360357046127319e-01</leafValues></_>
        <_>
          <internalNodes>
            0 -1 103 -2.8496974846348166e-04</internalNodes>
          <leafValues>
            -5.0500643253326416e-01 2.8452986478805542e-01</leafValues></_>
        <_>
          <internalNodes>
            0 -1 59 2.5147665292024612e-04</internalNodes>
          <leafValues>
            1.5917961299419403e-01 -7.5886231660842896e-01</leafValues></_>
        <_>
          <internalNodes>
            0 -1 61 -5.4756470490247011e-04</internalNodes>
          <leafValues>
            -3.6909013986587524e-01 3.8396051526069641e-01</leafValues></_>
        <_>
          <internalNodes>
            0 -1 67 -7.9726185649633408e-03</internalNodes>
          <leafValues>
            8.0105072259902954e-01 -1.7730903625488281e-01</leafValues></_></weakClassifiers></_>
    <!-- stage 9 -->
    <_>
      <maxWeakCount>10</maxWeakCount>
      <stageThreshold>-1.3150752782821655e+00</stageThreshold>
      <weakClassifiers>
        <_>
          <internalNodes>
            0 -1 48 -2.2647023200988770e-02</internalNodes>
          <leafValues>
            -7.7551019191741943e-01 -2.3529411852359772e-01</leafValues></_>
        <_>
          <internalNodes>
            0 -1 82 -1.0187733173370361e-01</internalNodes>
          <leafValues>
            4.8563916236162186e-02 -1.</leafValues></_>
        <_>
          <internalNodes>
            0 -1 17 -2.0043613039888442e-04</internalNodes>
          <leafValues>
            -6.8782430887222290e-01 1.3708865642547607e-01</leafValues></_>
        <_>
          <internalNodes>
            0 -1 86 4.8804667312651873e-04</internalNodes>
          <leafValues>
            2.4119292199611664e-01 -4.5864042639732361e-01</leafValues></_>
        <_>
          <internalNodes>
            0 -1 25 4.1934344917535782e-03</internalNodes>
          <leafValues>
            -1.6746209561824799e-01 7.0522803068161011e-01</leafValues></_>
        <_>
          <internalNodes>
            0 -1 112 1.7620314611122012e-04</internalNodes>
          <leafValues>
            2.1823267638683319e-01 -5.5933403968811035e-01</leafValues></_>
        <_>
          <internalNodes>
            0 -1 105 -3.6550965160131454e-03</internalNodes>
          <leafValues>
            8.4201014041900635e-01 -1.5091712772846222e-01</leafValues></_>
        <_>
          <internalNodes>
            0 -1 94 -4.6927106450311840e-04</internalNodes>
          <leafValues>
            -4.7147983312606812e-01 2.6804879307746887e-01</leafValues></_>
        <_>
          <internalNodes>
            0 -1 31 3.2715972047299147e-03</internalNodes>
          <leafValues>
            1.5589395165443420e-01 -7.7485531568527222e-01</leafValues></_>
        <_>
          <internalNodes>
            0 -1 111 -5.2349034376675263e-05</internalNodes>
          <leafValues>
            -5.1586145162582397e-01 2.2688862681388855e-01</leafValues></_></weakClassifiers></_>
    <!-- stage 10 -->
    <_>
      <maxWeakCount>8</maxWeakCount>
      <stageThreshold>-1.0294191837310791e+00</stageThreshold>
      <weakClassifiers>
        <_>
          <internalNodes>
            0 -1 89 3.8577854633331299e-02</internalNodes>
          <leafValues>
            -5.9016394615173340e-01 4.7058823704719543e-01</leafValues></_>
        <_>
          <internalNodes>
            0 -1 90 3.4993164241313934e-02</internalNodes>
          <leafValues>
            -3.2394632697105408e-01 4.3827983736991882e-01</leafValues></_>
        <_>
          <internalNodes>
            0 -1 52 -6.1432081274688244e-03</internalNodes>
          <leafValues>
            1.7382098734378815e-01 -7.9963201284408569e-01</leafValues></_>
        <_>
          <internalNodes>
            0 -1 26 3.8479798240587115e-04</internalNodes>
          <leafValues>
            2.0408526062965393e-01 -7.2959166765213013e-01</leafValues></_>
        <_>
          <internalNodes>
            0 -1 60 -1.6040711198002100e-03</internalNodes>
          <leafValues>
            -8.1927514076232910e-01 1.1762978136539459e-01</leafValues></_>
        <_>
          <internalNodes>
            0 -1 99 -1.3898036741011310e-05</internalNodes>
          <leafValues>
            3.7522152066230774e-01 -3.6795499920845032e-01</leafValues></_>
        <_>
          <internalNodes>
            0 -1 37 9.4496970996260643e-04</internalNodes>
          <leafValues>
            2.4816425144672394e-01 -5.5865037441253662e-01</leafValues></_>
        <_>
          <internalNodes>
            0 -1 68 5.5987425148487091e-03</internalNodes>
          <leafValues>
            -2.1618925034999847e-01 6.3932901620864868e-01</leafValues></_></weakClassifiers></_>
    <!-- stage 11 -->
    <_>
      <maxWeakCount>8</maxWeakCount>
      <stageThreshold>-1.2537629604339600e+00</stageThreshold>
      <weakClassifiers>
        <_>
          <internalNodes>
            0 -1 77 -2.9719778103753924e-04</internalNodes>
          <leafValues>
            -7.9695433378219604e-01 -2.1182265877723694e-01</leafValues></_>
        <_>
          <internalNodes>
            0 -1 20 1.0993410251103342e-04</internalNodes>
          <leafValues>
            1.0084647685289383e-01 -7.1272975206375122e-01</leafValues></_>
        <_>
          <internalNodes>
            0 -1 20 -9.1728055849671364e-05</internalNodes>
          <leafValues>
            -4.2942941188812256e-01 4.4310775399208069e-01</leafValues></_>
        <_>
          <internalNodes>
            0 -1 62 3.5194917581975460e-03</internalNodes>
          <leafValues>
            9.2286221683025360e-02 -8.3707350492477417e-01</leafValues></_>
        <_>
          <internalNodes>
            0 -1 7 -1.7041535465978086e-04</internalNodes>
          <leafValues>
            -5.4944789409637451e-01 2.7133989334106445e-01</leafValues></_>
        <_>
          <internalNodes>
            0 -1 109 2.7064088499173522e-04</internalNodes>
          <leafValues>
            2.2984486818313599e-01 -6.2349563837051392e-01</leafValues></_>
        <_>
          <internalNodes>
            0 -1 47 5.4775283206254244e-04</internalNodes>
          <leafValues>
            2.9499077796936035e-01 -5.1017087697982788e-01</leafValues></_>
        <_>
          <internalNodes>
            0 -1 32 2.2891789674758911e-02</internalNodes>
          <leafValues>
            -2.1152588725090027e-01 8.0898642539978027e-01</leafValues></_></weakClassifiers></_>
    <!-- stage 12 -->
    <_>
      <maxWeakCount>9</maxWeakCount>
      <stageThreshold>-1.0205968618392944e+00</stageThreshold>
      <weakClassifiers>
        <_>
          <internalNodes>
            0 -1 74 -1.0784914717078209e-02</internalNodes>
          <leafValues>
            -5.6430447101593018e-01 7.8947371244430542e-01</leafValues></_>
        <_>
          <internalNodes>
            0 -1 4 -9.0273573994636536e-02</internalNodes>
          <leafValues>
            5.9379649162292480e-01 -2.8821787238121033e-01</leafValues></_>
        <_>
          <internalNodes>
            0 -1 71 4.5258153113536537e-04</internalNodes>
          <leafValues>
            2.0531558990478516e-01 -7.2619116306304932e-01</leafValues></_>
        <_>
          <internalNodes>
            0 -1 78 -1.1445222480688244e-04</internalNodes>
          <leafValues>
            -4.1718515753746033e-01 2.9071685671806335e-01</leafValues></_>
        <_>
          <internalNodes>
            0 -1 107 1.5062277205288410e-02</internalNodes>
          <leafValues>
            -2.1836714446544647e-01 6.1091566085815430e-01</leafValues></_>
        <_>
          <internalNodes>
            0 -1 113 -3.6617845762521029e-04</internalNodes>
          <leafValues>
            -7.3530632257461548e-01 1.8066194653511047e-01</leafValues></_>
        <_>
          <internalNodes>
            0 -1 87 6.6303985659033060e-04</internalNodes>
          <leafValues>
            1.8519200384616852e-01 -6.8015265464782715e-01</leafValues></_>
        <_>
          <internalNodes>
            0 -1 56 4.8071164637804031e-03</internalNodes>
          <leafValues>
            -2.9222866892814636e-01 4.8797023296356201e-01</leafValues></_>
        <_>
          <internalNodes>
            0 -1 75 -9.5233129104599357e-04</internalNodes>
          <leafValues>
            3.9660319685935974e-01 -3.0688786506652832e-01</leafValues></_></weakClassifiers></_>
    <!-- stage 13 -->
    <_>
      <maxWeakCount>9</maxWeakCount>
      <stageThreshold>-1.0252813100814819e+00</stageThreshold>
      <weakClassifiers>
        <_>
          <internalNodes>
            0 -1 5 -1.1740175075829029e-02</internalNodes>
          <leafValues>
            2.0588235557079315e-01 -6.4457833766937256e-01</leafValues></_>
        <_>
          <internalNodes>
            0 -1 41 -1.4116914826445282e-04</internalNodes>
          <leafValues>
            3.9051446318626404e-01 -3.8381502032279968e-01</leafValues></_>
        <_>
          <internalNodes>
            0 -1 30 1.2003748997813091e-04</internalNodes>
          <leafValues>
            -3.5554137825965881e-01 3.7854292988777161e-01</leafValues></_>
        <_>
          <internalNodes>
            0 -1 54 -1.6792550683021545e-02</internalNodes>
          <leafValues>
            8.0185073614120483e-01 -1.5361747145652771e-01</leafValues></_>
        <_>
          <internalNodes>
            0 -1 49 -1.6865305369719863e-03</internalNodes>
          <leafValues>
            3.6260914802551270e-01 -3.2931622862815857e-01</leafValues></_>
        <_>
          <internalNodes>
            0 -1 58 -2.3542460985481739e-03</internalNodes>
          <leafValues>
            -5.8456397056579590e-01 2.3822961747646332e-01</leafValues></_>
        <_>
          <internalNodes>
            0 -1 36 3.9406513678841293e-05</internalNodes>
          <leafValues>
            -2.0815311372280121e-01 5.9444344043731689e-01</leafValues></_>
        <_>
          <internalNodes>
            0 -1 42 -4.5625376515090466e-04</internalNodes>
          <leafValues>
            4.7269809246063232e-01 -3.1020805239677429e-01</leafValues></_>
        <_>
          <internalNodes>
            0 -1 15 4.6212639426812530e-04</internalNodes>
          <leafValues>
            -2.8409394621849060e-01 4.4394981861114502e-01</leafValues></_></weakClassifiers></_>
    <!-- stage 14 -->
    <_>
      <maxWeakCount>12</maxWeakCount>
      <stageThreshold>-1.0830245018005371e+00</stageThreshold>
      <weakClassifiers>
        <_>
          <internalNodes>
            0 -1 66 -9.8779335618019104e-02</internalNodes>
          <leafValues>
            -6.6666670143604279e-02 -6.5423727035522461e-01</leafValues></_>
        <_>
          <internalNodes>
            0 -1 34 -1.1194698512554169e-02</internalNodes>
          <leafValues>
            4.0520930290222168e-01 -2.8983005881309509e-01</leafValues></_>
        <_>
          <internalNodes>
            0 -1 12 -2.3925704881548882e-02</internalNodes>
          <leafValues>
            -8.8725173473358154e-01 1.1469019204378128e-01</leafValues></_>
        <_>
          <internalNodes>
            0 -1 21 -1.1754813790321350e-01</internalNodes>
          <leafValues>
            4.3148106336593628e-01 -2.8117448091506958e-01</leafValues></_>
        <_>
          <internalNodes>
            0 -1 85 -2.5905708316713572e-03</internalNodes>
          <leafValues>
            -9.4028264284133911e-01 8.5449486970901489e-02</leafValues></_>
        <_>
          <internalNodes>
            0 -1 96 -7.4674291536211967e-03</internalNodes>
          <leafValues>
            3.8215890526771545e-01 -2.7798569202423096e-01</leafValues></_>
        <_>
          <internalNodes>
            0 -1 80 1.2857409194111824e-02</internalNodes>
          <leafValues>
            -1.7483441531658173e-01 5.8409619331359863e-01</leafValues></_>
        <_>
          <internalNodes>
            0 -1 91 -3.0153661966323853e-02</internalNodes>
          <leafValues>
            -1.4496770501136780e-01 7.5489097833633423e-01</leafValues></_>
        <_>
          <internalNodes>
            0 -1 83 -2.2524479776620865e-02</internalNodes>
          <leafValues>
            -7.4132752418518066e-01 1.5677744150161743e-01</leafValues></_>
        <_>
          <internalNodes>
            0 -1 20 7.8834025771357119e-05</internalNodes>
          <leafValues>
            1.6453133523464203e-01 -6.2877130508422852e-01</leafValues></_>
        <_>
          <internalNodes>
            0 -1 64 -1.3370714150369167e-02</internalNodes>
          <leafValues>
            5.2959877252578735e-01 -2.2376935184001923e-01</leafValues></_>
        <_>
          <internalNodes>
            0 -1 72 -9.5681268721818924e-03</internalNodes>
          <leafValues>
            4.1419568657875061e-01 -2.5271329283714294e-01</leafValues></_></weakClassifiers></_></stages>
  <features>
    <_>
      <rects>
        <_>
          0 0 3 3 -1.</_>
        <_>
          1 0 1 3 2.</_></rects>
      <tilted>0</tilted></_>
    <_>
      <rects>
        <_>
          0 0 23 2 -1.</_>
        <_>
          0 1 23 1 2.</_></rects>
      <tilted>0</tilted></_>
    <_>
      <rects>
        <_>
          0 1 1 2 -1.</_>
        <_>
          0 2 1 1 2.</_></rects>
      <tilted>0</tilted></_>
    <_>
      <rects>
        <_>
          0 1 2 20 -1.</_>
        <_>
          1 1 1 20 2.</_></rects>
      <tilted>0</tilted></_>
    <_>
      <rects>
        <_>
          0 2 12 20 -1.</_>
        <_>
          0 2 6 10 2.</_>
        <_>
          6 12 6 10 2.</_></rects>
      <tilted>0</tilted></_>
    <_>
      <rects>
        <_>
          0 3 2 18 -1.</_>
        <_>
          1 3 1 18 2.</_></rects>
      <tilted>0</tilted></_>
    <_>
      <rects>
        <_>
          0 4 1 12 -1.</_>
        <_>
          0 8 1 4 2.</_></rects>
      <tilted>0</tilted></_>
    <_>
      <rects>
        <_>
          0 5 1 2 -1.</_>
        <_>
          0 6 1 1 2.</_></rects>
      <tilted>0</tilted></_>
    <_>
      <rects>
        <_>
          0 8 2 2 -1.</_>
        <_>
          1 8 1 2 2.</_></rects>
      <tilted>0</tilted></_>
    <_>
      <rects>
        <_>
          0 8 4 14 -1.</_>
        <_>
          2 8 2 14 2.</_></rects>
      <tilted>0</tilted></_>
    <_>
      <rects>
        <_>
          0 9 9 3 -1.</_>
        <_>
          3 9 3 3 2.</_></rects>
      <tilted>0</tilted></_>
    <_>
      <rects>
        <_>
          0 10 4 12 -1.</_>
        <_>
          0 10 2 6 2.</_>
        <_>
          2 16 2 6 2.</_></rects>
      <tilted>0</tilted></_>
    <_>
      <rects>
        <_>
          0 13 1 3 -1.</_>
        <_>
          0 14 1 1 2.</_></rects>
      <tilted>0</tilted></_>
    <_>
      <rects>
        <_>
          0 13 1 4 -1.</_>
        <_>
          0 15 1 2 2.</_></rects>
      <tilted>0</tilted></_>
    <_>
      <rects>
        <_>
          0 13 4 5 -1.</_>
        <_>
          2 13 2 5 2.</_></rects>
      <tilted>0</tilted></_>
    <_>
      <rects>
        <_>
          0 19 4 4 -1.</_>
        <_>
          0 21 4 2 2.</_></rects>
      <tilted>0</tilted></_>
    <_>
      <rects>
        <_>
          0 21 4 3 -1.</_>
        <_>
          0 22 4 1 2.</_></rects>
      <tilted>0</tilted></_>
    <_>
      <rects>
        <_>
          0 22 1 2 -1.</_>
        <_>
          0 23 1 1 2.</_></rects>
      <tilted>0</tilted></_>
    <_>
      <rects>
        <_>
          0 22 4 2 -1.</_>
        <_>
          2 22 2 2 2.</_></rects>
      <tilted>0</tilted></_>
    <_>
      <rects>
        <_>
          0 22 18 2 -1.</_>
        <_>
          0 23 18 1 2.</_></rects>
      <tilted>0</tilted></_>
    <_>
      <rects>
        <_>
          0 23 2 1 -1.</_>
        <_>
          1 23 1 1 2.</_></rects>
      <tilted>0</tilted></_>
    <_>
      <rects>
        <_>
          0 23 24 1 -1.</_>
        <_>
          8 23 8 1 2.</_></rects>
      <tilted>0</tilted></_>
    <_>
      <rects>
        <_>
          1 0 2 1 -1.</_>
        <_>
          2 0 1 1 2.</_></rects>
      <tilted>0</tilted></_>
    <_>
      <rects>
        <_>
          1 8 12 6 -1.</_>
        <_>
          1 8 6 3 2.</_>
        <_>
          7 11 6 3 2.</_></rects>
      <tilted>0</tilted></_>
    <_>
      <rects>
        <_>
          1 10 12 1 -1.</_>
        <_>
          5 10 4 1 2.</_></rects>
      <tilted>0</tilted></_>
    <_>
      <rects>
        <_>
          1 14 2 8 -1.</_>
        <_>
          1 14 1 4 2.</_>
        <_>
          2 18 1 4 2.</_></rects>
      <tilted>0</tilted></_>
    <_>
      <rects>
        <_>
          2 0 5 2 -1.</_>
        <_>
          2 1 5 1 2.</_></rects>
      <tilted>0</tilted></_>
    <_>
      <rects>
        <_>
          2 1 4 2 -1.</_>
        <_>
          4 1 2 2 2.</_></rects>
      <tilted>0</tilted></_>
    <_>
      <rects>
        <_>
          2 8 2 16 -1.</_>
        <_>
          2 8 1 8 2.</_>
        <_>
          3 16 1 8 2.</_></rects>
      <tilted>0</tilted></_>
    <_>
      <rects>
        <_>
          2 11 22 9 -1.</_>
        <_>
          13 11 11 9 2.</_></rects>
      <tilted>0</tilted></_>
    <_>
      <rects>
        <_>
          2 16 2 6 -1.</_>
        <_>
          2 16 1 3 2.</_>
        <_>
          3 19 1 3 2.</_></rects>
      <tilted>0</tilted></_>
    <_>
      <rects>
        <_>
          2 17 15 2 -1.</_>
        <_>
          2 18 15 1 2.</_></rects>
      <tilted>0</tilted></_>
    <_>
      <rects>
        <_>
          2 21 14 2 -1.</_>
        <_>
          9 21 7 2 2.</_></rects>
      <tilted>0</tilted></_>
    <_>
      <rects>
        <_>
          2 22 9 2 -1.</_>
        <_>
          2 23 9 1 2.</_></rects>
      <tilted>0</tilted></_>
    <_>
      <rects>
        <_>
          3 0 10 4 -1.</_>
        <_>
          3 2 10 2 2.</_></rects>
      <tilted>0</tilted></_>
    <_>
      <rects>
        <_>
          3 2 12 6 -1.</_>
        <_>
          3 2 6 3 2.</_>
        <_>
          9 5 6 3 2.</_></rects>
      <tilted>0</tilted></_>
    <_>
      <rects>
        <_>
          3 8 3 2 -1.</_>
        <_>
          3 9 3 1 2.</_></rects>
      <tilted>0</tilted></_>
    <_>
      <rects>
        <_>
          3 8 9 2 -1.</_>
        <_>
          3 9 9 1 2.</_></rects>
      <tilted>0</tilted></_>
    <_>
      <rects>
        <_>
          3 13 6 10 -1.</_>
        <_>
          3 13 3 5 2.</_>
        <_>
          6 18 3 5 2.</_></rects>
      <tilted>0</tilted></_>
    <_>
      <rects>
        <_>
          3 13 8 8 -1.</_>
        <_>
          3 13 4 4 2.</_>
        <_>
          7 17 4 4 2.</_></rects>
      <tilted>0</tilted></_>
    <_>
      <rects>
        <_>
          4 0 2 1 -1.</_>
        <_>
          5 0 1 1 2.</_></rects>
      <tilted>0</tilted></_>
    <_>
      <rects>
        <_>
          4 7 2 6 -1.</_>
        <_>
          4 7 1 3 2.</_>
        <_>
          5 10 1 3 2.</_></rects>
      <tilted>0</tilted></_>
    <_>
      <rects>
        <_>
          4 20 2 2 -1.</_>
        <_>
          4 21 2 1 2.</_></rects>
      <tilted>0</tilted></_>
    <_>
      <rects>
        <_>
          4 22 8 2 -1.</_>
        <_>
          4 22 4 1 2.</_>
        <_>
          8 23 4 1 2.</_></rects>
      <tilted>0</tilted></_>
    <_>
      <rects>
        <_>
          5 0 2 2 -1.</_>
        <_>
          6 0 1 2 2.</_></rects>
      <tilted>0</tilted></_>
    <_>
      <rects>
        <_>
          5 22 10 2 -1.</_>
        <_>
          5 22 5 1 2.</_>
        <_>
          10 23 5 1 2.</_></rects>
      <tilted>0</tilted></_>
    <_>
      <rects>
        <_>
          5 22 18 2 -1.</_>
        <_>
          5 23 18 1 2.</_></rects>
      <tilted>0</tilted></_>
    <_>
      <rects>
        <_>
          6 0 6 1 -1.</_>
        <_>
          9 0 3 1 2.</_></rects>
      <tilted>0</tilted></_>
    <_>
      <rects>
        <_>
          6 0 10 19 -1.</_>
        <_>
          11 0 5 19 2.</_></rects>
      <tilted>0</tilted></_>
    <_>
      <rects>
        <_>
          6 0 18 2 -1.</_>
        <_>
          6 1 18 1 2.</_></rects>
      <tilted>0</tilted></_>
    <_>
      <rects>
        <_>
          6 9 12 14 -1.</_>
        <_>
          6 16 12 7 2.</_></rects>
      <tilted>0</tilted></_>
    <_>
      <rects>
        <_>
          6 10 10 2 -1.</_>
        <_>
          6 10 5 1 2.</_>
        <_>
          11 11 5 1 2.</_></rects>
      <tilted>0</tilted></_>
    <_>
      <rects>
        <_>
          6 15 3 1 -1.</_>
        <_>
          7 15 1 1 2.</_></rects>
      <tilted>0</tilted></_>
    <_>
      <rects>
        <_>
          7 1 5 18 -1.</_>
        <_>
          7 7 5 6 2.</_></rects>
      <tilted>0</tilted></_>
    <_>
      <rects>
        <_>
          7 8 10 4 -1.</_>
        <_>
          7 8 5 2 2.</_>
        <_>
          12 10 5 2 2.</_></rects>
      <tilted>0</tilted></_>
    <_>
      <rects>
        <_>
          7 14 14 6 -1.</_>
        <_>
          7 14 7 3 2.</_>
        <_>
          14 17 7 3 2.</_></rects>
      <tilted>0</tilted></_>
    <_>
      <rects>
        <_>
          8 6 2 14 -1.</_>
        <_>
          8 13 2 7 2.</_></rects>
      <tilted>0</tilted></_>
    <_>
      <rects>
        <_>
          8 6 10 4 -1.</_>
        <_>
          13 6 5 4 2.</_></rects>
      <tilted>0</tilted></_>
    <_>
      <rects>
        <_>
          9 6 2 17 -1.</_>
        <_>
          10 6 1 17 2.</_></rects>
      <tilted>0</tilted></_>
    <_>
      <rects>
        <_>
          10 0 2 1 -1.</_>
        <_>
          11 0 1 1 2.</_></rects>
      <tilted>0</tilted></_>
    <_>
      <rects>
        <_>
          10 0 2 5 -1.</_>
        <_>
          11 0 1 5 2.</_></rects>
      <tilted>0</tilted></_>
    <_>
      <rects>
        <_>
          10 5 4 6 -1.</_>
        <_>
          10 8 4 3 2.</_></rects>
      <tilted>0</tilted></_>
    <_>
      <rects>
        <_>
          10 6 2 12 -1.</_>
        <_>
          11 6 1 12 2.</_></rects>
      <tilted>0</tilted></_>
    <_>
      <rects>
        <_>
          10 11 2 6 -1.</_>
        <_>
          10 14 2 3 2.</_></rects>
      <tilted>0</tilted></_>
    <_>
      <rects>
        <_>
          10 17 4 6 -1.</_>
        <_>
          10 20 4 3 2.</_></rects>
      <tilted>0</tilted></_>
    <_>
      <rects>
        <_>
          10 20 8 4 -1.</_>
        <_>
          10 20 4 2 2.</_>
        <_>
          14 22 4 2 2.</_></rects>
      <tilted>0</tilted></_>
    <_>
      <rects>
        <_>
          11 0 4 24 -1.</_>
        <_>
          11 12 4 12 2.</_></rects>
      <tilted>0</tilted></_>
    <_>
      <rects>
        <_>
          11 4 1 8 -1.</_>
        <_>
          11 8 1 4 2.</_></rects>
      <tilted>0</tilted></_>
    <_>
      <rects>
        <_>
          11 16 1 8 -1.</_>
        <_>
          11 20 1 4 2.</_></rects>
      <tilted>0</tilted></_>
    <_>
      <rects>
        <_>
          12 0 2 1 -1.</_>
        <_>
          13 0 1 1 2.</_></rects>
      <tilted>0</tilted></_>
    <_>
      <rects>
        <_>
          12 0 2 2 -1.</_>
        <_>
          12 0 1 1 2.</_>
        <_>
          13 1 1 1 2.</_></rects>
      <tilted>0</tilted></_>
    <_>
      <rects>
        <_>
          12 0 3 2 -1.</_>
        <_>
          12 1 3 1 2.</_></rects>
      <tilted>0</tilted></_>
    <_>
      <rects>
        <_>
          12 1 9 6 -1.</_>
        <_>
          12 4 9 3 2.</_></rects>
      <tilted>0</tilted></_>
    <_>
      <rects>
        <_>
          12 9 6 6 -1.</_>
        <_>
          12 9 3 3 2.</_>
        <_>
          15 12 3 3 2.</_></rects>
      <tilted>0</tilted></_>
    <_>
      <rects>
        <_>
          12 21 2 3 -1.</_>
        <_>
          12 22 2 1 2.</_></rects>
      <tilted>0</tilted></_>
    <_>
      <rects>
        <_>
          12 21 8 2 -1.</_>
        <_>
          12 21 4 1 2.</_>
        <_>
          16 22 4 1 2.</_></rects>
      <tilted>0</tilted></_>
    <_>
      <rects>
        <_>
          13 0 2 1 -1.</_>
        <_>
          14 0 1 1 2.</_></rects>
      <tilted>0</tilted></_>
    <_>
      <rects>
        <_>
          13 0 2 3 -1.</_>
        <_>
          14 0 1 3 2.</_></rects>
      <tilted>0</tilted></_>
    <_>
      <rects>
        <_>
          13 0 4 2 -1.</_>
        <_>
          13 1 4 1 2.</_></rects>
      <tilted>0</tilted></_>
    <_>
      <rects>
        <_>
          13 3 1 15 -1.</_>
        <_>
          13 8 1 5 2.</_></rects>
      <tilted>0</tilted></_>
    <_>
      <rects>
        <_>
          13 15 3 8 -1.</_>
        <_>
          13 19 3 4 2.</_></rects>
      <tilted>0</tilted></_>
    <_>
      <rects>
        <_>
          13 16 4 6 -1.</_>
        <_>
          13 19 4 3 2.</_></rects>
      <tilted>0</tilted></_>
    <_>
      <rects>
        <_>
          14 14 9 8 -1.</_>
        <_>
          17 14 3 8 2.</_></rects>
      <tilted>0</tilted></_>
    <_>
      <rects>
        <_>
          15 0 4 24 -1.</_>
        <_>
          15 0 2 12 2.</_>
        <_>
          17 12 2 12 2.</_></rects>
      <tilted>0</tilted></_>
    <_>
      <rects>
        <_>
          15 0 6 1 -1.</_>
        <_>
          18 0 3 1 2.</_></rects>
      <tilted>0</tilted></_>
    <_>
      <rects>
        <_>
          15 1 2 4 -1.</_>
        <_>
          16 1 1 4 2.</_></rects>
      <tilted>0</tilted></_>
    <_>
      <rects>
        <_>
          15 4 6 2 -1.</_>
        <_>
          18 4 3 2 2.</_></rects>
      <tilted>0</tilted></_>
    <_>
      <rects>
        <_>
          15 5 2 3 -1.</_>
        <_>
          16 5 1 3 2.</_></rects>
      <tilted>0</tilted></_>
    <_>
      <rects>
        <_>
          15 17 2 6 -1.</_>
        <_>
          15 20 2 3 2.</_></rects>
      <tilted>0</tilted></_>
    <_>
      <rects>
        <_>
          16 2 6 14 -1.</_>
        <_>
          16 2 3 7 2.</_>
        <_>
          19 9 3 7 2.</_></rects>
      <tilted>0</tilted></_>
    <_>
      <rects>
        <_>
          16 9 8 14 -1.</_>
        <_>
          16 9 4 7 2.</_>
        <_>
          20 16 4 7 2.</_></rects>
      <tilted>0</tilted></_>
    <_>
      <rects>
        <_>
          16 21 6 3 -1.</_>
        <_>
          18 21 2 3 2.</_></rects>
      <tilted>0</tilted></_>
    <_>
      <rects>
        <_>
          17 0 2 1 -1.</_>
        <_>
          18 0 1 1 2.</_></rects>
      <tilted>0</tilted></_>
    <_>
      <rects>
        <_>
          17 12 6 4 -1.</_>
        <_>
          17 12 3 2 2.</_>
        <_>
          20 14 3 2 2.</_></rects>
      <tilted>0</tilted></_>
    <_>
      <rects>
        <_>
          18 0 6 1 -1.</_>
        <_>
          21 0 3 1 2.</_></rects>
      <tilted>0</tilted></_>
    <_>
      <rects>
        <_>
          18 1 2 1 -1.</_>
        <_>
          19 1 1 1 2.</_></rects>
      <tilted>0</tilted></_>
    <_>
      <rects>
        <_>
          18 4 4 9 -1.</_>
        <_>
          20 4 2 9 2.</_></rects>
      <tilted>0</tilted></_>
    <_>
      <rects>
        <_>
          18 5 6 16 -1.</_>
        <_>
          21 5 3 16 2.</_></rects>
      <tilted>0</tilted></_>
    <_>
      <rects>
        <_>
          18 12 4 2 -1.</_>
        <_>
          20 12 2 2 2.</_></rects>
      <tilted>0</tilted></_>
    <_>
      <rects>
        <_>
          19 15 2 2 -1.</_>
        <_>
          19 15 1 1 2.</_>
        <_>
          20 16 1 1 2.</_></rects>
      <tilted>0</tilted></_>
    <_>
      <rects>
        <_>
          20 6 2 7 -1.</_>
        <_>
          21 6 1 7 2.</_></rects>
      <tilted>0</tilted></_>
    <_>
      <rects>
        <_>
          21 0 2 20 -1.</_>
        <_>
          21 0 1 10 2.</_>
        <_>
          22 10 1 10 2.</_></rects>
      <tilted>0</tilted></_>
    <_>
      <rects>
        <_>
          21 8 2 8 -1.</_>
        <_>
          21 8 1 4 2.</_>
        <_>
          22 12 1 4 2.</_></rects>
      <tilted>0</tilted></_>
    <_>
      <rects>
        <_>
          21 21 3 2 -1.</_>
        <_>
          21 22 3 1 2.</_></rects>
      <tilted>0</tilted></_>
    <_>
      <rects>
        <_>
          22 0 2 17 -1.</_>
        <_>
          23 0 1 17 2.</_></rects>
      <tilted>0</tilted></_>
    <_>
      <rects>
        <_>
          22 1 2 6 -1.</_>
        <_>
          22 1 1 3 2.</_>
        <_>
          23 4 1 3 2.</_></rects>
      <tilted>0</tilted></_>
    <_>
      <rects>
        <_>
          22 2 2 19 -1.</_>
        <_>
          23 2 1 19 2.</_></rects>
      <tilted>0</tilted></_>
    <_>
      <rects>
        <_>
          22 2 2 22 -1.</_>
        <_>
          23 2 1 22 2.</_></rects>
      <tilted>0</tilted></_>
    <_>
      <rects>
        <_>
          22 13 2 1 -1.</_>
        <_>
          23 13 1 1 2.</_></rects>
      <tilted>0</tilted></_>
    <_>
      <rects>
        <_>
          23 2 1 4 -1.</_>
        <_>
          23 4 1 2 2.</_></rects>
      <tilted>0</tilted></_>
    <_>
      <rects>
        <_>
          23 3 1 9 -1.</_>
        <_>
          23 6 1 3 2.</_></rects>
      <tilted>0</tilted></_>
    <_>
      <rects>
        <_>
          23 4 1 2 -1.</_>
        <_>
          23 5 1 1 2.</_></rects>
      <tilted>0</tilted></_>
    <_>
      <rects>
        <_>
          23 17 1 2 -1.</_>
        <_>
          23 18 1 1 2.</_></rects>
      <tilted>0</tilted></_>
    <_>
      <rects>
        <_>
          23 22 1 2 -1.</_>
        <_>
          23 23 1 1 2.</_></rects>
      <tilted>0</tilted></_></features></cascade>
</opencv_storage>
