<?xml version="1.0"?>
<opencv_storage>
<stage5>
  <maxWeakCount>8</maxWeakCount>
  <stageThreshold>-1.1700687408447266e+00</stageThreshold>
  <weakClassifiers>
    <_>
      <internalNodes>
        0 -1 1171 -1.1711906641721725e-02</internalNodes>
      <leafValues>
        2.1126760542392731e-01 -6.5349543094635010e-01</leafValues></_>
    <_>
      <internalNodes>
        0 -1 60441 -7.3766321293078363e-05</internalNodes>
      <leafValues>
        -6.1966490745544434e-01 2.2270594537258148e-01</leafValues></_>
    <_>
      <internalNodes>
        0 -1 121344 1.6514683375135064e-04</internalNodes>
      <leafValues>
        1.9381918013095856e-01 -8.3470070362091064e-01</leafValues></_>
    <_>
      <internalNodes>
        0 -1 121348 1.6408164810854942e-04</internalNodes>
      <leafValues>
        2.3368760943412781e-01 -6.0415822267532349e-01</leafValues></_>
    <_>
      <internalNodes>
        0 -1 49476 2.4131528334692121e-04</internalNodes>
      <leafValues>
        1.6464886069297791e-01 -7.6060479879379272e-01</leafValues></_>
    <_>
      <internalNodes>
        0 -1 13365 2.3780295159667730e-03</internalNodes>
      <leafValues>
        -3.9572548866271973e-01 3.7365600466728210e-01</leafValues></_>
    <_>
      <internalNodes>
        0 -1 143654 -4.3629975989460945e-03</internalNodes>
      <leafValues>
        6.1993110179901123e-01 -2.9719927906990051e-01</leafValues></_>
    <_>
      <internalNodes>
        0 -1 10566 -6.1195413582026958e-04</internalNodes>
      <leafValues>
        -6.3851004838943481e-01 2.8402170538902283e-01</leafValues></_></weakClassifiers></stage5>
</opencv_storage>
