<?xml version="1.0"?>
<opencv_storage>
<stage10>
  <maxWeakCount>8</maxWeakCount>
  <stageThreshold>-1.0294191837310791e+00</stageThreshold>
  <weakClassifiers>
    <_>
      <internalNodes>
        0 -1 144887 3.8577854633331299e-02</internalNodes>
      <leafValues>
        -5.9016394615173340e-01 4.7058823704719543e-01</leafValues></_>
    <_>
      <internalNodes>
        0 -1 146785 3.4993164241313934e-02</internalNodes>
      <leafValues>
        -3.2394632697105408e-01 4.3827983736991882e-01</leafValues></_>
    <_>
      <internalNodes>
        0 -1 79331 -6.1432081274688244e-03</internalNodes>
      <leafValues>
        1.7382098734378815e-01 -7.9963201284408569e-01</leafValues></_>
    <_>
      <internalNodes>
        0 -1 26125 3.8479798240587115e-04</internalNodes>
      <leafValues>
        2.0408526062965393e-01 -7.2959166765213013e-01</leafValues></_>
    <_>
      <internalNodes>
        0 -1 106820 -1.6040711198002100e-03</internalNodes>
      <leafValues>
        -8.1927514076232910e-01 1.1762978136539459e-01</leafValues></_>
    <_>
      <internalNodes>
        0 -1 157269 -1.3898036741011310e-05</internalNodes>
      <leafValues>
        3.7522152066230774e-01 -3.6795499920845032e-01</leafValues></_>
    <_>
      <internalNodes>
        0 -1 44749 9.4496970996260643e-04</internalNodes>
      <leafValues>
        2.4816425144672394e-01 -5.5865037441253662e-01</leafValues></_>
    <_>
      <internalNodes>
        0 -1 120578 5.5987425148487091e-03</internalNodes>
      <leafValues>
        -2.1618925034999847e-01 6.3932901620864868e-01</leafValues></_></weakClassifiers></stage10>
</opencv_storage>
