<?xml version="1.0"?>
<opencv_storage>
<stage4>
  <maxWeakCount>8</maxWeakCount>
  <stageThreshold>-8.3104497194290161e-01</stageThreshold>
  <weakClassifiers>
    <_>
      <internalNodes>
        0 -1 13206 -8.9301228523254395e-02</internalNodes>
      <leafValues>
        -9.6774190664291382e-01 -9.3457944691181183e-02</leafValues></_>
    <_>
      <internalNodes>
        0 -1 161232 8.0770431086421013e-03</internalNodes>
      <leafValues>
        -4.9337339401245117e-01 5.0688749551773071e-01</leafValues></_>
    <_>
      <internalNodes>
        0 -1 162161 -8.8468998670578003e-02</internalNodes>
      <leafValues>
        -1. 1.9196946918964386e-01</leafValues></_>
    <_>
      <internalNodes>
        0 -1 112218 -6.7074969410896301e-03</internalNodes>
      <leafValues>
        6.5003216266632080e-01 -3.2686936855316162e-01</leafValues></_>
    <_>
      <internalNodes>
        0 -1 154431 -2.4042408913373947e-03</internalNodes>
      <leafValues>
        7.7077418565750122e-01 -2.1618306636810303e-01</leafValues></_>
    <_>
      <internalNodes>
        0 -1 20539 9.6765523776412010e-03</internalNodes>
      <leafValues>
        -3.0141264200210571e-01 5.5917090177536011e-01</leafValues></_>
    <_>
      <internalNodes>
        0 -1 47138 7.7435830608010292e-03</internalNodes>
      <leafValues>
        -2.3394511640071869e-01 7.1053123474121094e-01</leafValues></_>
    <_>
      <internalNodes>
        0 -1 32576 -5.2494215779006481e-03</internalNodes>
      <leafValues>
        7.0972567796707153e-01 -2.1835643053054810e-01</leafValues></_></weakClassifiers></stage4>
</opencv_storage>
