<?xml version="1.0"?>
<opencv_storage>
<stage9>
  <maxWeakCount>10</maxWeakCount>
  <stageThreshold>-1.3150752782821655e+00</stageThreshold>
  <weakClassifiers>
    <_>
      <internalNodes>
        0 -1 71104 -2.2647023200988770e-02</internalNodes>
      <leafValues>
        -7.7551019191741943e-01 -2.3529411852359772e-01</leafValues></_>
    <_>
      <internalNodes>
        0 -1 138365 -1.0187733173370361e-01</internalNodes>
      <leafValues>
        4.8563916236162186e-02 -1.</leafValues></_>
    <_>
      <internalNodes>
        0 -1 13297 -2.0043613039888442e-04</internalNodes>
      <leafValues>
        -6.8782430887222290e-01 1.3708865642547607e-01</leafValues></_>
    <_>
      <internalNodes>
        0 -1 140836 4.8804667312651873e-04</internalNodes>
      <leafValues>
        2.4119292199611664e-01 -4.5864042639732361e-01</leafValues></_>
    <_>
      <internalNodes>
        0 -1 23637 4.1934344917535782e-03</internalNodes>
      <leafValues>
        -1.6746209561824799e-01 7.0522803068161011e-01</leafValues></_>
    <_>
      <internalNodes>
        0 -1 162317 1.7620314611122012e-04</internalNodes>
      <leafValues>
        2.1823267638683319e-01 -5.5933403968811035e-01</leafValues></_>
    <_>
      <internalNodes>
        0 -1 161271 -3.6550965160131454e-03</internalNodes>
      <leafValues>
        8.4201014041900635e-01 -1.5091712772846222e-01</leafValues></_>
    <_>
      <internalNodes>
        0 -1 152044 -4.6927106450311840e-04</internalNodes>
      <leafValues>
        -4.7147983312606812e-01 2.6804879307746887e-01</leafValues></_>
    <_>
      <internalNodes>
        0 -1 37155 3.2715972047299147e-03</internalNodes>
      <leafValues>
        1.5589395165443420e-01 -7.7485531568527222e-01</leafValues></_>
    <_>
      <internalNodes>
        0 -1 162173 -5.2349034376675263e-05</internalNodes>
      <leafValues>
        -5.1586145162582397e-01 2.2688862681388855e-01</leafValues></_></weakClassifiers></stage9>
</opencv_storage>
