<?xml version="1.0"?>
<opencv_storage>
<stage9>
  <maxWeakCount>9</maxWeakCount>
  <stageThreshold>-1.2882994413375854e+00</stageThreshold>
  <weakClassifiers>
    <_>
      <internalNodes>
        0 -1 7437 1.2290577404201031e-02</internalNodes>
      <leafValues>
        -6.7284989356994629e-01 7.0370370149612427e-01</leafValues></_>
    <_>
      <internalNodes>
        0 -1 105645 6.7733693867921829e-04</internalNodes>
      <leafValues>
        2.8177302330732346e-02 -9.1202914714813232e-01</leafValues></_>
    <_>
      <internalNodes>
        0 -1 57003 -2.6138063520193100e-02</internalNodes>
      <leafValues>
        -9.8097920417785645e-01 1.0432194918394089e-01</leafValues></_>
    <_>
      <internalNodes>
        0 -1 117920 8.7938876822590828e-04</internalNodes>
      <leafValues>
        1.7918968200683594e-01 -7.9306042194366455e-01</leafValues></_>
    <_>
      <internalNodes>
        0 -1 22312 1.9800649024546146e-03</internalNodes>
      <leafValues>
        1.2735171616077423e-01 -6.8441718816757202e-01</leafValues></_>
    <_>
      <internalNodes>
        0 -1 241 3.7554244045168161e-04</internalNodes>
      <leafValues>
        2.2566884756088257e-01 -5.5091798305511475e-01</leafValues></_>
    <_>
      <internalNodes>
        0 -1 3156 -5.1274569705128670e-03</internalNodes>
      <leafValues>
        7.1185058355331421e-01 -2.0808242261409760e-01</leafValues></_>
    <_>
      <internalNodes>
        0 -1 157591 -1.3231302727945149e-04</internalNodes>
      <leafValues>
        -4.4647800922393799e-01 3.1598183512687683e-01</leafValues></_>
    <_>
      <internalNodes>
        0 -1 154643 1.0632270277710631e-04</internalNodes>
      <leafValues>
        2.0644369721412659e-01 -6.5187036991119385e-01</leafValues></_></weakClassifiers></stage9>
</opencv_storage>
