<?xml version="1.0"?>
<opencv_storage>
<stage8>
  <maxWeakCount>11</maxWeakCount>
  <stageThreshold>-1.0679485797882080e+00</stageThreshold>
  <weakClassifiers>
    <_>
      <internalNodes>
        0 -1 11047 8.8565675541758537e-03</internalNodes>
      <leafValues>
        -6.6277128458023071e-01 8.0952382087707520e-01</leafValues></_>
    <_>
      <internalNodes>
        0 -1 320 7.9833489144220948e-04</internalNodes>
      <leafValues>
        1.4253979921340942e-01 -5.6055599451065063e-01</leafValues></_>
    <_>
      <internalNodes>
        0 -1 67295 -1.8275426700711250e-03</internalNodes>
      <leafValues>
        -1. 1.1002802103757858e-01</leafValues></_>
    <_>
      <internalNodes>
        0 -1 127963 3.5172589123249054e-03</internalNodes>
      <leafValues>
        -1.7881064116954803e-01 6.1702388525009155e-01</leafValues></_>
    <_>
      <internalNodes>
        0 -1 149217 -5.3531266748905182e-03</internalNodes>
      <leafValues>
        6.8454641103744507e-01 -1.5335413813591003e-01</leafValues></_>
    <_>
      <internalNodes>
        0 -1 156756 -4.7384444769704714e-05</internalNodes>
      <leafValues>
        3.0322629213333130e-01 -3.9353147149085999e-01</leafValues></_>
    <_>
      <internalNodes>
        0 -1 105886 -5.4334721062332392e-04</internalNodes>
      <leafValues>
        -7.1832048892974854e-01 1.2749174237251282e-01</leafValues></_>
    <_>
      <internalNodes>
        0 -1 157568 -1.8101163732353598e-04</internalNodes>
      <leafValues>
        -4.3415343761444092e-01 2.5993841886520386e-01</leafValues></_>
    <_>
      <internalNodes>
        0 -1 30402 -1.2014096137136221e-03</internalNodes>
      <leafValues>
        5.3257954120635986e-01 -1.9934852421283722e-01</leafValues></_>
    <_>
      <internalNodes>
        0 -1 49481 -5.9276365209370852e-04</internalNodes>
      <leafValues>
        -5.7571488618850708e-01 1.8142692744731903e-01</leafValues></_>
    <_>
      <internalNodes>
        0 -1 23200 -6.4687598496675491e-03</internalNodes>
      <leafValues>
        6.9925564527511597e-01 -1.5250295400619507e-01</leafValues></_></weakClassifiers></stage8>
</opencv_storage>
